svm_type c_svc
kernel_type rbf
gamma 0.09
nr_class 2
total_sv 61
rho -0.120594
label 331 332
probA -4.53434
probB -0.177089
nr_sv 32 29
SV
10 1:0.56858683 2:0.57848823 3:0.49908519 4:0.45932233 5:0.20227733 6:0.51432413 7:0.46289876 8:0.44859248 9:0.51622224 10:0.42285493 11:0.25020882 12:0.57680762 13:0.6531111 14:0.60494131 15:0.568708 16:0.55522001 17:0.14423746 18:0.29785866 19:0.70102227 20:0.50506949 21:0.63454682 22:0.2397784 23:0.7147364 24:0.33532965 25:0.47136408 26:0.5101276 27:0.28929216 28:0.49216354 29:0.71308029 30:0.51929814 31:0.49281508 32:0.16759469 
4.755077709138673 1:0.44876495 2:0.55402446 3:0.47975415 4:0.42635721 5:0.52395558 6:0.39098155 7:0.43332255 8:0.3946515 9:0.41127673 10:0.21242912 11:0.32512149 12:0.40434965 13:0.57643461 14:0.52911037 15:0.71268988 16:0.55598313 17:0.15294172 18:0.28163284 19:0.29372576 20:0.48761645 21:0.50548279 22:0.48713177 23:0.68661314 24:0.50826102 25:0.58872169 26:0.74984103 27:0.47650245 28:0.61478931 29:0.52136117 30:0.37613165 31:0.37709171 32:0.087562442 
2.772118960921391 1:0.43643391 2:0.53756219 3:0.6559692 4:0.70792854 5:0.79985595 6:0.29002047 7:0.23477904 8:0.60868955 9:0.6003679 10:0.34243864 11:0.70618474 12:0.39088875 13:0.75812364 14:0.39333469 15:0.41443053 16:0 17:0.080222599 18:1 19:0.23205648 20:0.7476415 21:0.50393683 22:0.25711283 23:0.69578433 24:0.41981065 25:0.55586898 26:0.62545604 27:0.47718102 28:0.71454197 29:0.66682631 30:0.32229555 31:0.29616624 32:0.25859877 
4.656794592175419 1:0.49145249 2:0.63518143 3:0.59321243 4:0.52092797 5:0.5266757 6:0.51749897 7:0.53491288 8:0.39261663 9:0.2415988 10:0.30540499 11:0.42135239 12:0.78125167 13:0.45556399 14:0.62353981 15:0.62412804 16:0.44644541 17:0.28772825 18:0.55087793 19:0.32526815 20:0.2808148 21:0.65162361 22:0.49159124 23:0.7343694 24:0.41038439 25:0.6349467 26:0.72157222 27:0.44830403 28:0.5649879 29:0.55578613 30:0.42425391 31:0.40234092 32:0.084188394 
9.314857601036236 1:0.3692449 2:0.52255118 3:0.55224109 4:0.48868337 5:0.68878305 6:0.63898301 7:0.77454793 8:0.44442284 9:0.20682886 10:0.31177613 11:0.14321886 12:0.41445041 13:0.53311414 14:0.48818398 15:0.52866381 16:0.61931157 17:0.33072358 18:0.40574309 19:0.097936682 20:0.3369849 21:0.52512515 22:0.43059093 23:0.7417962 24:0.58404922 25:0.59505069 26:0.80657881 27:0.35930648 28:0.52853799 29:0.50308299 30:0.4412069 31:0.43930054 32:0.017985119 
1.641387772717081 1:0.29011703 2:0.33954546 3:0.77115506 4:0.74890757 5:0.53752494 6:0.20463896 7:0.25651157 8:0.54688716 9:0.34715721 10:0.3233715 11:0.41460162 12:0.60035366 13:0.60203588 14:0.72453552 15:0.54073733 16:0.55915326 17:0.40650183 18:0.84648651 19:0.53588295 20:0.2652975 21:0.030688927 22:0.17400785 23:0.34947407 24:0.48885563 25:0.15775944 26:0.81669068 27:0.58490044 28:0.82675284 29:0.90937537 30:0.57255286 31:0.49459139 32:0.11093891 
7.537995366554052 1:0.77233696 2:0.39088446 3:0.28689885 4:0.56796348 5:0.64424962 6:0.47705975 7:0.50756407 8:0.37566605 9:0.4977268 10:0.60808533 11:0.24535882 12:0.66478789 13:0.42849568 14:0.49446762 15:0.32061708 16:0.51869792 17:0.20763239 18:0.85988271 19:0.32823429 20:0.64230829 21:0.69700283 22:0.20543355 23:0.60397148 24:0.29057124 25:0.56922609 26:0.68682337 27:0.14157666 28:0.16551937 29:0.60447967 30:0.51655322 31:0.461779 32:0.12273881 
2.106686346824208 1:0.70597231 2:0.48423296 3:0.79328912 4:0.70357108 5:0.37559873 6:0.0406745 7:0.49119073 8:0.27335861 9:0.52632856 10:0.30851263 11:0.48915485 12:0.42464826 13:0.29590887 14:0.2820752 15:0.34244192 16:0.40492332 17:0.14514713 18:0.64089233 19:0.48543763 20:0.54817098 21:0.39515305 22:0.65994424 23:0.56862408 24:0.42394722 25:0.67750436 26:0.88054943 27:0.54280174 28:0.39202163 29:0.4819589 30:0.44197434 31:0.21678677 32:0.087506093 
10 1:0.74285287 2:0.53011179 3:0.68031406 4:0.48232558 5:0.39667028 6:0.22909473 7:0.41423017 8:0.52450091 9:0.43568584 10:0.53724265 11:0.42379224 12:0.63520175 13:0.30519202 14:0.26926255 15:0.49899697 16:0.44263867 17:0.13399921 18:0.63039285 19:0.66059691 20:0.60027426 21:0.47462466 22:0.80306762 23:0.47728381 24:0.43288448 25:0.75528181 26:0.95316988 27:0.58256757 28:0.39243808 29:0.37255925 30:0.54670614 31:0.25775442 32:0.11558808 
2.083169979660342 1:0.48223174 2:0.30115163 3:0.55007571 4:0.66179895 5:0.37973908 6:0.050014462 7:0.44420144 8:0.62202299 9:0.44226596 10:0.77589065 11:0.3230142 12:0.81486279 13:0.44568855 14:0.38031811 15:0.60972953 16:0.53923351 17:0.23115335 18:0.57774949 19:0.75278473 20:0.68283874 21:0.54261619 22:0.86236042 23:0.42184171 24:0.37759942 25:0.73822773 26:0.90760475 27:0.57485044 28:0.27341741 29:0.22320716 30:0.52626371 31:0.27376413 32:0.07767272 
10 1:0.38910204 2:0.37202063 3:0.426521 4:0.44400072 5:0.83700168 6:0.58248484 7:0.47351485 8:0.46287912 9:0.51418853 10:0.40127102 11:0.21031548 12:0.52226025 13:0.4530164 14:0.22114812 15:0.52797025 16:0.5126701 17:0.23570848 18:0.40068388 19:0.4430292 20:0.50772417 21:0.51366138 22:0.31583568 23:0.732795 24:0.30837017 25:0.74561846 26:0.47778627 27:0.15278384 28:0.56415224 29:0.67881709 30:0.65765208 31:0.52579015 32:0.21055898 
0.3366575004278679 1:0.61291403 2:0.37949705 3:0.54287243 4:0.70728427 5:0.36129335 6:0.52357268 7:0.54054242 8:0.35605261 9:0.25036955 10:0.40704453 11:0.31457889 12:0.48615545 13:0.4593454 14:0.61762762 15:0.60134602 16:0.6963225 17:0.34321308 18:0.6835078 19:0.28367576 20:0.3782925 21:0.22562179 22:0.15284114 23:0.31668517 24:0.34104618 25:0.29822326 26:1 27:0.49261028 28:0.69815665 29:0.87768424 30:0.54341125 31:0.56009859 32:0.066201799 
7.992882421376853 1:0.3061024 2:0.63767636 3:0.60004908 4:0.86802584 5:0.49789861 6:0.67467004 7:0.43737465 8:0.48035657 9:0.6196968 10:0.19460881 11:0.35971418 12:0.44869742 13:0.70008028 14:0.36242223 15:0.52908689 16:0.40152675 17:0.2327451 18:0.72056055 19:0.65845919 20:0.58600599 21:0.67331755 22:0.24872449 23:0.7500965 24:0.43047696 25:0.56898201 26:0.50186592 27:0.2005727 28:0.28029531 29:0.74352849 30:0.47023353 31:0.47768021 32:0.14930448 
10 1:0.25934982 2:0.58247834 3:0.67659396 4:0.72116381 5:0.36497736 6:0.64325798 7:0.65623182 8:0.31872693 9:0.42858315 10:0.32338169 11:0.16270837 12:0.37114748 13:0.61900252 14:0.35536352 15:0.326947 16:0.55671054 17:0.22557205 18:0.37789944 19:0.37755546 20:0.63163775 21:0.59031904 22:0.27203614 23:0.8811385 24:0.47854069 25:0.46145988 26:0.41977453 27:0.3203283 28:0.37485048 29:0.75341189 30:0.42048571 31:0.52946109 32:0.11602602 
3.451571031344549 1:0.37907559 2:0.286818 3:0.71156889 4:0.42829755 5:0.68354994 6:0.36900303 7:0.10797012 8:0.7424891 9:1 10:0.55226773 11:0.3746545 12:0.50266033 13:0.73573297 14:0.44299194 15:0.8765862 16:0.72947103 17:0.3496412 18:0.15874197 19:0.73910606 20:0.45537233 21:0.29274037 22:0.52628052 23:0.28956795 24:0.45232859 25:0.47611552 26:0.78473425 27:0.69925326 28:0.61844361 29:0.5067367 30:0.35540244 31:0.37714097 32:0.14615919 
1.409670574569608 1:0.15520251 2:0.46231401 3:0.59885597 4:0.61590213 5:0.29818398 6:0.61530888 7:0.53143024 8:0.3021006 9:0.21417584 10:0.33448005 11:0.41895866 12:0.40393201 13:0.8375681 14:0.22340016 15:0.19518013 16:0.63808662 17:0.24981759 18:0.59993899 19:0.36660194 20:0.59014404 21:0.33632916 22:0.18870023 23:0.99661893 24:0.45532516 25:0.33689907 26:0.27196348 27:0.3908304 28:0.45942381 29:0.65746433 30:0.39375246 31:0.57040006 32:0.14890364 
0.9399686446640033 1:0.17667818 2:0.35358298 3:0.34508491 4:0.7070235 5:0.70480412 6:0.12008995 7:0.456431 8:0.34852985 9:0.52774948 10:0.25713381 11:0.30684784 12:0.43575931 13:0.58306605 14:0.42783758 15:0.50290167 16:0.66437328 17:0.41305757 18:0.50623673 19:0.23530194 20:0.2703104 21:0.49752563 22:0.39446631 23:0.52114224 24:0.50109595 25:0.55372274 26:0.86071891 27:0.46213448 28:0.60603625 29:0.45540652 30:0.5088858 31:0.39583087 32:0.1018358 
10 1:0.62378424 2:0.43855092 3:0.49586493 4:0.24723229 5:0.82404774 6:0.30653861 7:0.38002241 8:0.65953475 9:0.60760319 10:0.39874619 11:0.53191417 12:0.67442495 13:0.63287127 14:0.90217847 15:0.94344729 16:0.8038649 17:0.57780045 18:0.5736416 19:0.61732125 20:0.74796748 21:0.60107458 22:0.57461798 23:0.55653363 24:0.51671898 25:0.61909974 26:0.8935594 27:0.67434257 28:0.41126236 29:0.45292073 30:0.27204385 31:0.36907256 32:0.12374879 
1.523090303446872e-05 1:0.56758726 2:0 3:0.45569134 4:0.41099295 5:0.066758387 6:0.45112643 7:0.52955914 8:0.44156486 9:0.59406507 10:0.43276614 11:0.084822908 12:0.61045462 13:0.76095974 14:0 15:0.71158522 16:0.38649189 17:0.42914474 18:0.36155018 19:0.016933015 20:0.77985656 21:0.76419371 22:0.10697184 23:0.43886691 24:0.40279236 25:0.71837348 26:0.34338236 27:0.43048012 28:0.63278991 29:0.45099741 30:0.52275217 31:0.61090636 32:0.29418421 
1.50647781844739 1:0.56758726 2:0 3:0.45569134 4:0.41099295 5:0.066758387 6:0.45112643 7:0.52955914 8:0.44156486 9:0.59406507 10:0.43276614 11:0.084822908 12:0.61045462 13:0.76095974 14:0 15:0.71158522 16:0.38649189 17:0.42914474 18:0.36155018 19:0.016933015 20:0.77985656 21:0.76419371 22:0.10697184 23:0.43886691 24:0.40279236 25:0.71837348 26:0.34338236 27:0.43048012 28:0.63278991 29:0.45099741 30:0.52275217 31:0.61090636 32:0.29418421 
0.02134845973558258 1:0.2848061 2:0.53778577 3:0.4202145 4:0.44014403 5:0.3659327 6:0.44151068 7:0.49494848 8:0.33311921 9:0.60036349 10:0.29587284 11:0.51333475 12:0.55606347 13:0.53332967 14:0.40410274 15:0.51531696 16:0.38933581 17:0.20527118 18:0.782148 19:0.46316847 20:0.49309573 21:0.52491111 22:0.32427514 23:0.74453735 24:0.38379344 25:0.45569482 26:0.7758978 27:0.90127182 28:0.37185824 29:0.37605363 30:0.95072895 31:0.94230449 32:0.25322524 
0.003958443144173904 1:0.41587228 2:0.53891987 3:0.55611295 4:0.69170535 5:0.60721028 6:0.71693379 7:0.45503891 8:0.69099933 9:0.37679708 10:0.35934758 11:0.20761034 12:0.34476122 13:0.52588671 14:0.72745168 15:0.40880337 16:0.60156381 17:0.22244453 18:0.20792559 19:0.31535992 20:0.38922358 21:0.67949069 22:0.21271943 23:0.62430102 24:0.48006779 25:0.53372204 26:0.71866238 27:0.75517792 28:0.38798285 29:0.435684 30:0.88670498 31:0.91018623 32:0.22943987 
10 1:0.30125746 2:0.42332211 3:0.77668715 4:0.16220039 5:0.57884008 6:0.76921952 7:0.47492948 8:0.84574497 9:0.48493558 10:0.32470798 11:0.30191708 12:0.72862816 13:0.87230259 14:0.31244847 15:0.69929147 16:0.48123741 17:1 18:0.37327269 19:0.2837958 20:0.73127705 21:0.60487312 22:0.2452223 23:0.51880091 24:0.14345537 25:0.80765784 26:0.41058591 27:0.64550412 28:0.60335815 29:0.56707877 30:0.32880405 31:0.64491665 32:0.58708882 
0.001912991330848558 1:0.013671519 2:0.33294943 3:0.42639139 4:0.58812255 5:0.43029416 6:0.67151302 7:0.5427193 8:0.12272187 9:0.36879823 10:0.68906945 11:0.18470335 12:0.64510798 13:0.61719573 14:0.55079246 15:0.36088428 16:0.58506685 17:0.44744456 18:0.79874462 19:0.93973464 20:0.044722561 21:0.98059213 22:0.45214859 23:0.28399003 24:0.79125309 25:0.16799553 26:0.32736716 27:0.37641931 28:0.45447069 29:0.075588949 30:0.28184584 31:0.67640245 32:0.59117204 
1.673516801802982e-05 1:0.67421687 2:0.18853343 3:0.43266699 4:0.84584087 5:0.58396548 6:0.40279335 7:0.54814792 8:0.23187356 9:0.49184519 10:0.24656597 11:0.044262905 12:0.61972201 13:0.50891447 14:0.74512428 15:0.64004648 16:0.4723914 17:0.27094635 18:0.74966282 19:0.47821602 20:0.56722134 21:0.53384012 22:0.57505667 23:0.61047363 24:0.74260044 25:0.5248546 26:0.63883221 27:0.79288429 28:0.097666599 29:0.85362846 30:0.12163591 31:0.8898502 32:0.1641864 
2.016917435795617 1:0.24274343 2:0.92163461 3:0.66949332 4:0.51372367 5:0.36477712 6:0.17992501 7:0.31402269 8:0.18975018 9:0.71832967 10:1 11:0.52466732 12:0.25452185 13:0.56180543 14:0.1812788 15:0.53457087 16:0.78629243 17:0.54119217 18:0.45864806 19:0.34652966 20:0.47399428 21:0.60671806 22:0.12392619 23:0.61841559 24:0.734936 25:0.39842099 26:0.71451908 27:0.84136999 28:0.11619559 29:0.80260324 30:0.10266344 31:0.75960809 32:0.21015663 
4.837577619621428 1:0.33610821 2:0.49665648 3:0.47506896 4:0.31501886 5:0.52318376 6:0.35087183 7:0.42543828 8:0.50438571 9:0.65303719 10:0.51424718 11:0.31800559 12:0.36116058 13:0.54044622 14:0.29837808 15:0.1688405 16:0.51832163 17:0.32917485 18:0.27217415 19:0.24962366 20:0.30537501 21:0.44866624 22:0.2587826 23:0.61200923 24:0.6273396 25:0.43977487 26:0.62595421 27:0.72386801 28:0.073145866 29:0.84708422 30:0.14431247 31:0.78616995 32:0.2479784 
4.673730596065617 1:0.096310399 2:0.35567221 3:0.35515058 4:0.49202693 5:0.54003543 6:0.067939028 7:0.55272442 8:0.62197608 9:0.54429728 10:0.23302644 11:0.068225443 12:0.57775319 13:0.17279702 14:0.54537743 15:0.52918452 16:0.59564608 17:0.44067124 18:0.43316367 19:0.32135862 20:0.43075839 21:0.53944981 22:0.19298702 23:0.69842094 24:0.35044041 25:0.42787951 26:0.80186844 27:0.82106984 28:0.43406427 29:0.41421166 30:0.95648909 31:0.90448684 32:0.28343129 
2.569309786381977 1:0.2848061 2:0.53778577 3:0.4202145 4:0.44014403 5:0.3659327 6:0.44151068 7:0.49494848 8:0.33311921 9:0.60036349 10:0.29587284 11:0.51333475 12:0.55606347 13:0.53332967 14:0.40410274 15:0.51531696 16:0.38933581 17:0.20527118 18:0.782148 19:0.46316847 20:0.49309573 21:0.52491111 22:0.32427514 23:0.74453735 24:0.38379344 25:0.45569482 26:0.7758978 27:0.90127182 28:0.37185824 29:0.37605363 30:0.95072895 31:0.94230449 32:0.25322524 
6.291030511519807 1:0.41587228 2:0.53891987 3:0.55611295 4:0.69170535 5:0.60721028 6:0.71693379 7:0.45503891 8:0.69099933 9:0.37679708 10:0.35934758 11:0.20761034 12:0.34476122 13:0.52588671 14:0.72745168 15:0.40880337 16:0.60156381 17:0.22244453 18:0.20792559 19:0.31535992 20:0.38922358 21:0.67949069 22:0.21271943 23:0.62430102 24:0.48006779 25:0.53372204 26:0.71866238 27:0.75517792 28:0.38798285 29:0.435684 30:0.88670498 31:0.91018623 32:0.22943987 
5.018390392426451 1:0.013671519 2:0.33294943 3:0.42639139 4:0.58812255 5:0.43029416 6:0.67151302 7:0.5427193 8:0.12272187 9:0.36879823 10:0.68906945 11:0.18470335 12:0.64510798 13:0.61719573 14:0.55079246 15:0.36088428 16:0.58506685 17:0.44744456 18:0.79874462 19:0.93973464 20:0.044722561 21:0.98059213 22:0.45214859 23:0.28399003 24:0.79125309 25:0.16799553 26:0.32736716 27:0.37641931 28:0.45447069 29:0.075588949 30:0.28184584 31:0.67640245 32:0.59117204 
1.926872910117443 1:0.67421687 2:0.18853343 3:0.43266699 4:0.84584087 5:0.58396548 6:0.40279335 7:0.54814792 8:0.23187356 9:0.49184519 10:0.24656597 11:0.044262905 12:0.61972201 13:0.50891447 14:0.74512428 15:0.64004648 16:0.4723914 17:0.27094635 18:0.74966282 19:0.47821602 20:0.56722134 21:0.53384012 22:0.57505667 23:0.61047363 24:0.74260044 25:0.5248546 26:0.63883221 27:0.79288429 28:0.097666599 29:0.85362846 30:0.12163591 31:0.8898502 32:0.1641864 
-2.040413010178425 1:0.60019475 2:0.57988906 3:0.56890255 4:0.55006629 5:0.60521901 6:0.13794935 7:0.57092863 8:0.43521163 9:0.61573094 10:0.29425853 11:0.30780151 12:0.54140472 13:0.52916491 14:0.70474821 15:0.21112959 16:0.56814891 17:0.42838505 18:0.69357669 19:0.45971304 20:0.57427949 21:0.84207308 22:0.46652213 23:0.73877853 24:0.45255896 25:0.52055347 26:0.86007768 27:0.79797888 28:0.70047444 29:0.70983446 30:0.2717416 31:0.42572689 32:0.72072577 
-3.250197366088277 1:0.11938448 2:0.3609606 3:0.53603691 4:0.43136853 5:0.48439616 6:0.3730998 7:0.60343832 8:0.62919277 9:0.56066799 10:0.56391352 11:0.301139 12:0.53114158 13:0.46034539 14:0.57925647 15:0.37253687 16:0.68082261 17:7.7267621e-16 18:0.5813365 19:0.43626872 20:0.58724046 21:0.79709077 22:0.27584031 23:0.71219873 24:0.32504138 25:0.58509094 26:0.86085659 27:0.68081772 28:0.68655014 29:0.87173164 30:0.37147087 31:0.59147263 32:0.81378537 
-0.01535813669166025 1:0.6318199 2:0.43586192 3:0.55608237 4:0.64014393 5:0.58466953 6:0.50382894 7:0.66824573 8:0.32601938 9:0.55430162 10:0.3260358 11:0.37416732 12:0.48609442 13:0.39671406 14:0.43199646 15:0.42910358 16:0.57836378 17:0.23631644 18:0.53234261 19:0.46010292 20:0.40863484 21:0.4707928 22:0.17179571 23:0.58696371 24:0.97130764 25:0.92377603 26:0.56227976 27:0.07497859 28:0.32557234 29:0.65264779 30:0.89120793 31:0.35998842 32:0.49263981 
-0.4213867071766068 1:0.24669589 2:0.44044834 3:0.50694227 4:0.54898167 5:0.88691759 6:0.62468976 7:0.503277 8:0.51024789 9:0.29989487 10:0.55687112 11:0.4373644 12:0.58589989 13:0.64025539 14:0.42435178 15:0.41434965 16:0.30143037 17:0.31918156 18:0.23583442 19:0.34694618 20:0.60569763 21:0.8154726 22:0.20672308 23:0.75390065 24:0.43453276 25:0.80919152 26:0.40926194 27:0.66133893 28:0.37499148 29:0.33275965 30:0.48128721 31:0.13371488 32:0.2884112 
-1.749720337487731 1:0.22393352 2:0.6425944 3:0.40509507 4:0.52477449 5:0.68823344 6:0.46108136 7:0.4201259 8:0.40379161 9:0.63011569 10:0.38589245 11:0.095191859 12:0.60018557 13:0.33998331 14:0.44820684 15:0.69876397 16:0.64864194 17:0.31874567 18:0.62760824 19:0.11329563 20:0.61443156 21:0.34908029 22:0.45640537 23:0.6246137 24:0.53323454 25:0.35315961 26:0.5115366 27:0.43836841 28:0.45460743 29:0.77445138 30:0.74218708 31:0.4241598 32:0.13362305 
-0.6390784717611473 1:0.16947797 2:0.55833656 3:0.43840617 4:0.68235844 5:0.73803842 6:0.86399162 7:0.42969915 8:0.23572502 9:0.70011652 10:0.50190639 11:0.067669891 12:0.41314742 13:0.6319021 14:0.68584442 15:0.77307862 16:0.69870675 17:0.54766774 18:0.27066851 19:0.32661432 20:0.72641498 21:0.70804566 22:0.29620296 23:0.64581382 24:0.45686933 25:0.47326571 26:0.72568232 27:0.56726736 28:0.21794464 29:0.82630521 30:0.4318819 31:0.47473678 32:0.18578888 
-10 1:0.37356591 2:0.4764947 3:0.42750552 4:0.6086666 5:0.50120747 6:0.83460999 7:0.43327764 8:0.13964812 9:0.62599862 10:0.44192529 11:0.092083514 12:0.44261581 13:0.78210223 14:0.13555332 15:0.69603741 16:0.73828626 17:0.22138308 18:0.59549582 19:0.34858704 20:0.55590278 21:0.60878783 22:0.45431137 23:0.84468359 24:0.60661781 25:0.49828249 26:0.47998059 27:0.53305036 28:0.39142436 29:0.79364508 30:0.49599946 31:0.507842 32:0.17590402 
-1.635253120693429 1:0.44040161 2:0.39283299 3:0.77441835 4:0.39202073 5:0.55642593 6:0.35764492 7:0.54493171 8:0.47714189 9:0.57387751 10:0.19128498 11:0.3445406 12:0.71657223 13:0.41383067 14:0.70594805 15:0.93337756 16:0.46437934 17:0.22799347 18:0.94767886 19:0.67436963 20:4.9077391e-16 21:0.79286212 22:0.4524512 23:0.72818792 24:0.22525918 25:0.51798093 26:0.42480278 27:0.46174192 28:0.36232683 29:0.86165416 30:0.67104256 31:0.3934572 32:0.37910825 
-8.034864895190688 1:0.47881451 2:0.55463469 3:0.39241886 4:0.35676965 5:0.493442 6:0.65099508 7:0.38721207 8:0.6554932 9:0.69641572 10:0.50762534 11:0.27460769 12:0.63173175 13:0.67309004 14:0.60793757 15:0.43128523 16:0.74573004 17:0.18554562 18:0.42408809 19:0.36225012 20:0.54215008 21:0.35885006 22:0.54926944 23:0.89668459 24:0.66347426 25:0.37425771 26:0.44595996 27:0.83614957 28:0.5293653 29:0.43226865 30:0.37736079 31:0.27950826 32:0.11246046 
-5.704544504550058 1:0.71241307 2:0.59784019 3:0.32646617 4:0.28335699 5:0.45324093 6:0.41335815 7:0.6128605 8:0.69201809 9:0.64553833 10:0.29162768 11:0.22319709 12:0.49778676 13:0.61228639 14:0.30220768 15:0.47802088 16:0.74988091 17:0.043880295 18:0.39266455 19:0.16472015 20:0.64147389 21:0.28337488 22:0.2918089 23:1 24:0.87841195 25:0.3552148 26:0.4622637 27:0.87587619 28:0.40880412 29:0.40561369 30:0.24995899 31:0.27892601 32:0.16697308 
-10 1:0.22385456 2:0.53221643 3:0.57888347 4:0.55523783 5:0.59142369 6:0.18816261 7:0.6655435 8:0.34185284 9:0.4623802 10:0.73855662 11:0.14183907 12:0.54171574 13:0.41376829 14:0.22162424 15:0.35971656 16:0.53132808 17:0.23657459 18:0.33538908 19:0.71665919 20:0.76443601 21:0.46712163 22:0.40440357 23:0.27571353 24:0.40401533 25:0.75706756 26:0.86473387 27:0.78321242 28:0.20503853 29:0.46532866 30:0.54042304 31:0.16347694 32:0.20299919 
-4.801193886755176 1:0.4609521 2:0.59475315 3:0.56724715 4:0.71576989 5:0.44620281 6:0.52929986 7:0.4708021 8:0.54105896 9:0.6214301 10:0.43677634 11:0.23051658 12:0.76613855 13:0.47636312 14:0.43703684 15:0.64152187 16:0.71559787 17:0.37728703 18:0.56074595 19:0.28568387 20:0.33373618 21:0.77698189 22:0.43693915 23:0.76803631 24:0.32900593 25:0.34543279 26:0.46569291 27:0.57655412 28:0.39439556 29:0.79690713 30:0.66864324 31:0.46920103 32:0.19193633 
-2.622696047129886 1:0.26461676 2:0.48090994 3:0.57713705 4:0.60414112 5:0.23608495 6:0.7578553 7:0.57264733 8:0.42623395 9:0.02267543 10:0.54683268 11:0.40015373 12:0.1726054 13:0.49176961 14:0.22678842 15:0.76324111 16:0.43371817 17:0.42190167 18:0.59452802 19:0.61792159 20:0.62409323 21:0.44692123 22:0.67755455 23:0.3388043 24:0.39791507 25:0.48693061 26:0.77183568 27:0.64142179 28:0.50930041 29:0.82641399 30:0.73956096 31:0.36534905 32:0.14263086 
-6.524322421402121 1:0.19738561 2:0.51425356 3:0.61226064 4:0.41480035 5:0.43905288 6:0.41548041 7:0.61897552 8:0.50275213 9:0.43653938 10:0.27177009 11:0.49033979 12:0.46955395 13:0.54348904 14:0.53409666 15:0.31865653 16:0.50758743 17:0.2614775 18:0.18298228 19:0.42695159 20:0.529836 21:0.60706872 22:0.59062874 23:0.46498498 24:0.44901994 25:0.45609799 26:0.56021756 27:0.40885544 28:0.21581101 29:0.73878378 30:0.73972565 31:0.32551754 32:0.23342578 
-7.835501791455679 1:0.29511487 2:0.77970272 3:0.38055468 4:0.27536318 5:1 6:0.9896099 7:0.41819885 8:0.49548048 9:0.39845479 10:0.57990426 11:0.06372036 12:0.46620408 13:0.7026692 14:0.51529551 15:0.63093722 16:0.69742703 17:0.74926114 18:0.29444829 19:0.25696659 20:0.68300152 21:0.78765517 22:0.40118852 23:0.8518948 24:0.18379082 25:0.8556658 26:0.76704621 27:0.34680834 28:0.1892368 29:0.79015899 30:0.46961901 31:0.47319064 32:0.33027154 
-6.52072584051007 1:0.33059177 2:0.42429578 3:0.46184415 4:0.60550612 5:0.49445033 6:0.42566192 7:0.56890929 8:0.52430773 9:0.12324802 10:0.2828964 11:0.5018875 12:0.60982758 13:0.76384294 14:0.37143669 15:0.55247182 16:0.44322217 17:0.23980227 18:0.50035596 19:0.43281943 20:0.46455517 21:0.8446362 22:0.49491051 23:0.54045951 24:0.44228959 25:0.53969431 26:0.52783209 27:0.50674963 28:0.45245513 29:0.80693823 30:0.70910227 31:0.31370893 32:0.19500946 
-8.627617052692868 1:0.37242132 2:0.39196038 3:0.62370443 4:0.60867316 5:0.64723742 6:0.63525409 7:0.28607959 8:0.54920882 9:0.46731985 10:0.37062874 11:0.36067477 12:0.37795427 13:0.52932405 14:0.43028584 15:0.52273494 16:0.45432881 17:0.34556529 18:0.49384803 19:0.3896271 20:0.031541221 21:0.25773981 22:0.41097108 23:0.33234 24:0.35152894 25:0.6495204 26:0.68307137 27:0.52539122 28:0.77754098 29:1 30:0.85825235 31:0.39256057 32:0.28690279 
-8.522497699461836 1:0.4494468 2:0.57791913 3:0.42140022 4:0.59751976 5:0.51989388 6:0.5029729 7:0.72621953 8:0.33830115 9:0.5728038 10:0.35321054 11:0.045841511 12:0.64982581 13:0.65473461 14:0.44489467 15:0.87103987 16:0.74255705 17:0.42706987 18:0.59042329 19:0.34948039 20:0.66144764 21:0.54881191 22:0.49133918 23:0.61556435 24:0.46440259 25:0.47627667 26:0.71902108 27:0.57746118 28:0.30454993 29:0.87078607 30:0.57576352 31:0.48208618 32:0.10048727 
-4.878539243625907 1:0.60038638 2:0.58102858 3:0.32331237 4:0.55168158 5:0.68363047 6:0.91551882 7:3.9459517e-16 8:0.54838061 9:0.70129579 10:0.53935981 11:0.52183974 12:0.6236161 13:0.94139701 14:0.70088929 15:0.54826075 16:0.19813834 17:0.15311316 18:0.72533709 19:0.34392747 20:0.35308728 21:0.57738107 22:0.16165803 23:0.49774474 24:0.24513873 25:0.63645136 26:0.30210352 27:0.61743736 28:0.70000863 29:0.50838864 30:0.43710649 31:0.20397758 32:0.38492787 
-2.881838169407793 1:0.7562843 2:0.34549195 3:0.50671828 4:0.54787117 5:0.25094977 6:0.60259449 7:0.65511161 8:0.44286221 9:0.44598079 10:0.6373952 11:0.39905146 12:0.19337434 13:0.54602814 14:0.71414906 15:0.3531785 16:0.52801973 17:0.28566495 18:0.14028369 19:0.91396284 20:0.38018903 21:0.39966032 22:0.67578059 23:0.67154121 24:0.39238194 25:0.51057947 26:0.60268563 27:0.94302803 28:0.44025409 29:0.47854689 30:0.42293057 31:0.18893865 32:0.17047589 
-0.4196528353476988 1:0.68221539 2:0.49604863 3:0.45652568 4:0.43917441 5:0.2203642 6:0.60913533 7:0.66060692 8:0.46472535 9:0.45230818 10:0.63945097 11:0.24111195 12:0.41302562 13:0.49366358 14:0.72195262 15:0.32074153 16:0.3559601 17:0.13908975 18:0.30625948 19:0.88372386 20:0.28327513 21:0.39392987 22:0.62701446 23:0.72881269 24:0.24181302 25:0.61425763 26:0.5049367 27:0.85893947 28:0.47103459 29:0.45345527 30:0.46250549 31:0.17902593 32:0.2171925 
-10 1:0.64997655 2:0.35667306 3:0.77553028 4:0.38580287 5:0.64307916 6:0.32170877 7:0.62171227 8:0.62355018 9:0.32002917 10:0.42122927 11:0.26041275 12:0.64493191 13:0.44924206 14:0.54108483 15:0.85840321 16:0.49267876 17:0.64034605 18:0.71301204 19:0.36646062 20:0.59143198 21:0.64320582 22:0.4541409 23:0.8535291 24:0.16875006 25:0.37746742 26:0.37668723 27:0.53704691 28:0.34544569 29:0.69411659 30:0.58640021 31:0.38932469 32:0.36244234 
-3.300778183353376 1:0.23501353 2:0.37445706 3:0.32774538 4:0.52376199 5:0.75257415 6:0.56152028 7:0.69144046 8:0.70069176 9:0.46261263 10:0.38289124 11:0.25366554 12:0.59353501 13:0.62128794 14:0.56418496 15:0.56477505 16:0.62046975 17:0.21402706 18:0.8456198 19:0.51782668 20:0.47418153 21:0.64849043 22:0.19530353 23:0.62949133 24:0.37353197 25:0.6485436 26:0.66659492 27:0.58656746 28:0.15568307 29:0.38829434 30:0.54476219 31:0.18470314 32:0.19601868 
-4.783608509540526 1:0.50545758 2:0.42840186 3:0.60209006 4:0.62836909 5:0.43438676 6:0.52939892 7:0.58251524 8:0.65208572 9:0.094051398 10:0.40774438 11:0.45522028 12:0.28465423 13:0.6534521 14:0.63378119 15:0.61708623 16:0.41040462 17:0.14527451 18:0.6508019 19:0.53231192 20:0.58525532 21:0.74392492 22:0.016828144 23:0.49424538 24:0.34508508 25:0.6241641 26:0.56095046 27:0.74802136 28:0.25615034 29:0.31775796 30:0.47166756 31:0.064526893 32:0.27314633 
-4.740064927340309 1:0.6318199 2:0.43586192 3:0.55608237 4:0.64014393 5:0.58466953 6:0.50382894 7:0.66824573 8:0.32601938 9:0.55430162 10:0.3260358 11:0.37416732 12:0.48609442 13:0.39671406 14:0.43199646 15:0.42910358 16:0.57836378 17:0.23631644 18:0.53234261 19:0.46010292 20:0.40863484 21:0.4707928 22:0.17179571 23:0.58696371 24:0.97130764 25:0.92377603 26:0.56227976 27:0.07497859 28:0.32557234 29:0.65264779 30:0.89120793 31:0.35998842 32:0.49263981 
-5.980956331087323 1:0.22519167 2:0.27590615 3:0.49017376 4:0.54481125 5:0.27738097 6:0.36187196 7:0.52098155 8:0.51707387 9:0.33252445 10:0.40819445 11:0.41726667 12:0.7583546 13:0.35234958 14:0.80672699 15:0.42360669 16:0.51413012 17:0.5288716 18:0.3517282 19:0.33792168 20:0.64150685 21:0.50767148 22:0.17368481 23:0.69372636 24:0.85027069 25:0.77876103 26:0.66187406 27:0.20388731 28:0.36679158 29:0.64848495 30:0.79837382 31:0.3525731 32:0.53209978 
-3.601490357362395 1:0.39315379 2:0.36270157 3:0.75974512 4:0.55844927 5:0.32545266 6:0.48787749 7:0.32446739 8:0.49472323 9:0.58203852 10:0.15991722 11:0.28685233 12:0.72066981 13:0.45670238 14:0.39572182 15:0.46763563 16:0.57724082 17:0.1008739 18:0.32545328 19:0.36508372 20:0.5386166 21:0.73237544 22:0.3732684 23:0.47478157 24:0.31990686 25:0.50628597 26:0.78515977 27:0.27449247 28:0.26432574 29:0.44875836 30:0.44247884 31:0.448232 32:0.98530221 
-8.106422437883012 1:0.67901582 2:0.52427059 3:0.48500955 4:0.48846677 5:0.58135962 6:0.28840029 7:0.32018721 8:0.30750281 9:0.72261196 10:6.8324997e-16 11:0.36863318 12:0.58038336 13:0.43375161 14:0.42101002 15:0.27525714 16:0.47975329 17:0.47642773 18:0.54828864 19:0.54410219 20:0.51880741 21:0.65413493 22:0.48466617 23:0.57984179 24:0.39976659 25:0.45578909 26:0.84096569 27:0.49629194 28:0.31298649 29:0.25937515 30:0.3504535 31:0.34922597 32:0.90873349 
-0.2276751478936878 1:0.34603932 2:0.3962861 3:0.73185813 4:0.47617584 5:0.50943893 6:0.56054175 7:0.29205871 8:0.51644188 9:0.59549153 10:0.15473162 11:0.3115477 12:0.73502278 13:0.44094741 14:0.4034614 15:0.49816576 16:0.62175214 17:0.11614006 18:0.25922745 19:0.36169064 20:0.48384658 21:0.76848435 22:0.40831506 23:0.49992192 24:0.26488131 25:0.48219386 26:0.80104762 27:0.31153578 28:0.26623505 29:0.43907538 30:0.42477274 31:0.48265716 32:0.98471498 
